{
    "best_time": 3600.0,
    "biases": [
        [
            -5.35822835485057,
            5.21854959496084,
            2.3655677988873,
            4.89264361149136,
            -0.48909890852777,
            0.695112268254744
        ],
        [
            3.10633501319009
        ]
    ],
    "child_number": 5,
    "generation_number": 1021,
    "sizes": [
        4,
        6,
        1
    ],
    "weights": [
        [
            3.25074997936272,
            -8.86877175068045,
            8.49814808832161,
            -0.615099668207734,
            8.23663618814547,
            -5.19173058613121,
            -3.37537476242756,
            -5.85211204226373,
            -4.45751837564934,
            -4.76459410841974,
            -2.46867006213039,
            -2.02106929474865,
            7.69165825896483,
            -6.6111652976354,
            -7.68061182869272,
            -0.809115812098691,
            0.798597002840783,
            4.29726445663664,
            4.48569346446764,
            -0.694403247416914,
            -4.26960374263503,
            1.7448395179976,
            -2.86347125650006,
            -5.91044082440195
        ],
        [
            -5.77082735133552,
            0.668104499760029,
            -0.321923321024864,
            -3.05656106377741,
            5.3920272307079,
            -4.83920127498324
        ]
    ]
}